{
  "layer_sizes": [
    4,
    8,
    1
  ],
  "weights": [
    [
      -0.0634651,
      0.037206188,
      0.086485974,
      -0.06426464,
      0.08227543,
      -0.08138887,
      0.072441585,
      0.07124034,
      -0.055704467,
      -0.014116795,
      0.035753846,
      0.08612716,
      -0.086582944,
      -0.08463703,
      -0.030785158,
      0.07376662,
      -0.0761969,
      -0.07506567,
      -0.03805994,
      -0.04600489,
      -0.050352223,
      -0.052989185,
      -0.050799996,
      -0.009122653,
      0.020244136,
      -0.04567092,
      -0.05098997,
      -0.010291526,
      -0.10651473,
      -0.03736756,
      -0.04724513,
      -0.06326601
    ],
    [
      0.08601495,
      0.08702425,
      0.0043855067,
      0.058371097,
      -0.068705015,
      -0.066602066,
      -0.053846247,
      -0.09834317
    ]
  ],
  "biases": [
    [
      -0.013700095,
      0.0,
      -0.0006910217,
      -0.0011795743,
      0.004361869,
      0.00657773,
      -0.015934866,
      0.0007980093
    ],
    [
      0.37240064
    ]
  ]
}