{
  "layer_sizes": [
    4,
    8,
    1
  ],
  "weights": [
    [
      -0.06846532,
      0.039206296,
      0.08748607,
      -0.06726481,
      0.08227543,
      -0.08138887,
      0.072441585,
      0.07124034,
      -0.05595737,
      -0.014015647,
      0.035804413,
      0.08597544,
      -0.086582944,
      -0.08463703,
      -0.030785158,
      0.07376662,
      -0.07083069,
      -0.076015174,
      -0.039894946,
      -0.045940895,
      -0.04568314,
      -0.054128144,
      -0.05219748,
      -0.008242217,
      0.020545054,
      -0.045570597,
      -0.051190577,
      -0.010692757,
      -0.09878503,
      -0.0386934,
      -0.049914926,
      -0.06328419
    ],
    [
      0.09277217,
      0.08702425,
      0.0046572853,
      0.058371097,
      -0.064802065,
      -0.06482377,
      -0.053858187,
      -0.09193155
    ]
  ],
  "biases": [
    [
      -0.0036995981,
      0.0,
      -0.0001852535,
      -0.0011795743,
      0.0023348685,
      0.002538906,
      -0.0149317905,
      -0.0018172312
    ],
    [
      0.23256959
    ]
  ]
}