{
  "layer_sizes": [
    4,
    8,
    1
  ],
  "weights": [
    [
      0.03459812,
      -0.09711287,
      -0.036410727,
      -0.0005251989,
      -0.03323511,
      -0.07010591,
      0.037625022,
      -0.059208907,
      -0.024870211,
      0.04155215,
      -0.008749421,
      -0.061287615,
      0.09640992,
      0.07148338,
      -0.028343273,
      -0.031752124,
      -0.0005709529,
      -0.055854537,
      -0.083680235,
      -0.032245375,
      0.09225289,
      -0.06986274,
      -0.0665659,
      -0.03416705,
      0.050954603,
      0.06238257,
      0.09997046,
      0.092183456,
      -0.0227516,
      0.008440243,
      -0.07433142,
      -0.0981867
    ],
    [
      0.036009602,
      -0.099104956,
      -0.06188514,
      -0.095035635,
      0.05674296,
      -0.08083781,
      0.11299348,
      0.037361328
    ]
  ],
  "biases": [
    [
      0.0,
      0.0,
      0.0057287673,
      -0.002985592,
      0.0,
      0.0,
      0.029002653,
      -0.0035133357
    ],
    [
      0.31568593
    ]
  ]
}