{
  "layer_sizes": [
    4,
    8,
    1
  ],
  "weights": [
    [
      0.03459812,
      -0.09711287,
      -0.036410727,
      -0.0005251989,
      -0.03323511,
      -0.07010591,
      0.037625022,
      -0.059208907,
      -0.02776543,
      0.04348228,
      -0.009714497,
      -0.060322545,
      0.09640992,
      0.07148338,
      -0.028343273,
      -0.031752124,
      -0.0005709529,
      -0.055854537,
      -0.083680235,
      -0.032245375,
      0.09225289,
      -0.06986274,
      -0.0665659,
      -0.03416705,
      0.05989492,
      0.06481245,
      0.11134061,
      0.10283725,
      -0.022065097,
      0.007982584,
      -0.07410261,
      -0.09841551
    ],
    [
      0.036009602,
      -0.099104956,
      -0.06519097,
      -0.095035635,
      0.05674296,
      -0.08083781,
      0.13928968,
      0.03728053
    ]
  ],
  "biases": [
    [
      0.0,
      0.0,
      0.015379481,
      -0.002985592,
      0.0,
      0.0,
      0.041152034,
      -0.0058016507
    ],
    [
      0.41331625
    ]
  ]
}