{
  "layer_sizes": [
    4,
    8,
    1
  ],
  "weights": [
    [
      -0.06349139,
      0.0372167,
      0.08649123,
      -0.06428041,
      0.08227543,
      -0.08138887,
      0.072441585,
      0.07124034,
      -0.055705808,
      -0.014116259,
      0.035754114,
      0.08612636,
      -0.086582944,
      -0.08463703,
      -0.030785158,
      0.07376662,
      -0.07617164,
      -0.07507263,
      -0.038066994,
      -0.045998033,
      -0.05034021,
      -0.053000093,
      -0.050798517,
      -0.009099356,
      0.020244136,
      -0.04567092,
      -0.05098997,
      -0.010291526,
      -0.106460154,
      -0.037371382,
      -0.047267504,
      -0.06328075
    ],
    [
      0.08604764,
      0.08702425,
      0.004386778,
      0.058371097,
      -0.06868223,
      -0.06659062,
      -0.053846247,
      -0.09830604
    ]
  ],
  "biases": [
    [
      -0.013647522,
      0.0,
      -0.0006883416,
      -0.0011795743,
      0.0043342337,
      0.006509319,
      -0.015934866,
      0.0008198353
    ],
    [
      0.37196425
    ]
  ]
}