{
  "layer_sizes": [
    4,
    8,
    1
  ],
  "weights": [
    [
      0.03459812,
      -0.09711287,
      -0.036410727,
      -0.0005251989,
      -0.03323511,
      -0.07010591,
      0.037625022,
      -0.059208907,
      -0.02572614,
      0.042122774,
      -0.009034731,
      -0.061002295,
      0.09640992,
      0.07148338,
      -0.028343273,
      -0.031752124,
      -0.0005709529,
      -0.055854537,
      -0.083680235,
      -0.032245375,
      0.09225289,
      -0.06986274,
      -0.0665659,
      -0.03416705,
      0.053598776,
      0.06336277,
      0.10359484,
      0.095759414,
      -0.022238702,
      0.0080983145,
      -0.07416047,
      -0.09835765
    ],
    [
      0.036009602,
      -0.099104956,
      -0.06270306,
      -0.095035635,
      0.05674296,
      -0.08083781,
      0.1220076,
      0.03728573
    ]
  ],
  "biases": [
    [
      0.0,
      0.0,
      0.008581849,
      -0.002985592,
      0.0,
      0.0,
      0.033903785,
      -0.0052229995
    ],
    [
      0.35749084
    ]
  ]
}