{
  "layer_sizes": [
    4,
    8,
    1
  ],
  "weights": [
    [
      0.03459812,
      -0.09711287,
      -0.036410727,
      -0.0005251989,
      -0.03323511,
      -0.07010591,
      0.037625022,
      -0.059208907,
      -0.023577321,
      0.0406902,
      -0.008318462,
      -0.06171857,
      0.09640992,
      0.07148338,
      -0.028343273,
      -0.031752124,
      -0.0005709529,
      -0.055854537,
      -0.083680235,
      -0.032245375,
      0.09225289,
      -0.06986274,
      -0.0665659,
      -0.03416705,
      0.046701375,
      0.05972895,
      0.09306358,
      0.08468141,
      -0.023541424,
      0.008966794,
      -0.07459475,
      -0.09792337
    ],
    [
      0.036009602,
      -0.099104956,
      -0.060920373,
      -0.095035635,
      0.05674296,
      -0.08083781,
      0.09366875,
      0.037652105
    ]
  ],
  "biases": [
    [
      0.0,
      0.0,
      0.0014191465,
      -0.002985592,
      0.0,
      0.0,
      0.015734458,
      -0.0008805961
    ],
    [
      0.1862027
    ]
  ]
}