{
  "layer_sizes": [
    4,
    8,
    1
  ],
  "weights": [
    [
      -0.06995796,
      0.03980335,
      0.08778463,
      -0.06816041,
      0.08227543,
      -0.08138887,
      0.072441585,
      0.07124034,
      -0.056032162,
      -0.013985739,
      0.035819378,
      0.085930586,
      -0.08695385,
      -0.084488675,
      -0.03071098,
      0.073544055,
      -0.069752574,
      -0.07640531,
      -0.04013675,
      -0.045402423,
      -0.044655353,
      -0.054539252,
      -0.052403025,
      -0.00762556,
      0.022981744,
      -0.044758357,
      -0.052815054,
      -0.013941681,
      -0.09674655,
      -0.03907562,
      -0.050598256,
      -0.06320308
    ],
    [
      0.09497927,
      0.08702425,
      0.0047489833,
      0.05837763,
      -0.06381439,
      -0.064494796,
      -0.05484168,
      -0.09025396
    ]
  ],
  "biases": [
    [
      -0.00071432185,
      0.0,
      -0.000035699097,
      -0.00043779306,
      0.0004776652,
      0.00048337356,
      -0.0068094786,
      -0.0027439208
    ],
    [
      0.11458668
    ]
  ]
}