{
  "layer_sizes": [
    4,
    8,
    1
  ],
  "weights": [
    [
      0.03459812,
      -0.09711287,
      -0.036410727,
      -0.0005251989,
      -0.03323511,
      -0.07010591,
      0.037625022,
      -0.059208907,
      -0.028925195,
      0.044255458,
      -0.010101097,
      -0.059935972,
      0.09640992,
      0.07148338,
      -0.028343273,
      -0.031752124,
      -0.0005709529,
      -0.055854537,
      -0.083680235,
      -0.032245375,
      0.09225289,
      -0.06986274,
      -0.0665659,
      -0.03416705,
      0.06351487,
      0.06533135,
      0.1154795,
      0.10639544,
      -0.022065097,
      0.007982584,
      -0.07410261,
      -0.09841551
    ],
    [
      0.036009602,
      -0.099104956,
      -0.066919476,
      -0.095035635,
      0.05674296,
      -0.08083781,
      0.14771524,
      0.03728053
    ]
  ],
  "biases": [
    [
      0.0,
      0.0,
      0.019245408,
      -0.002985592,
      0.0,
      0.0,
      0.043746594,
      -0.0058016507
    ],
    [
      0.43143088
    ]
  ]
}