{
  "layer_sizes": [
    4,
    8,
    1
  ],
  "weights": [
    [
      -0.06620532,
      0.038302287,
      0.08703405,
      -0.06590879,
      0.08227543,
      -0.08138887,
      0.072441585,
      0.07124034,
      -0.05584354,
      -0.014061173,
      0.03578166,
      0.086043715,
      -0.086582944,
      -0.08463703,
      -0.030785158,
      0.07376662,
      -0.07315685,
      -0.07559824,
      -0.039102934,
      -0.045982827,
      -0.04737644,
      -0.05350858,
      -0.051822104,
      -0.009105973,
      0.020244136,
      -0.04567092,
      -0.05098997,
      -0.010291526,
      -0.10210877,
      -0.038106315,
      -0.048777737,
      -0.06332114
    ],
    [
      0.08958945,
      0.08702425,
      0.0045272904,
      0.058371097,
      -0.0664608,
      -0.06551713,
      -0.053846247,
      -0.09467144
    ]
  ],
  "biases": [
    [
      -0.008219643,
      0.0,
      -0.00041288766,
      -0.0011795743,
      0.0032526664,
      0.0055055777,
      -0.015934866,
      -0.0005692028
    ],
    [
      0.3146739
    ]
  ]
}