{
  "layer_sizes": [
    4,
    8,
    1
  ],
  "weights": [
    [
      0.03459812,
      -0.09711287,
      -0.036410727,
      -0.0005251989,
      -0.03323511,
      -0.07010591,
      0.037625022,
      -0.059208907,
      -0.026708525,
      0.042777658,
      -0.009362194,
      -0.060674816,
      0.09640992,
      0.07148338,
      -0.028343273,
      -0.031752124,
      -0.0005709529,
      -0.055854537,
      -0.083680235,
      -0.032245375,
      0.09225289,
      -0.06986274,
      -0.0665659,
      -0.03416705,
      0.056623183,
      0.06417309,
      0.107429504,
      0.09934449,
      -0.022065097,
      0.007982584,
      -0.07410261,
      -0.09841551
    ],
    [
      0.036009602,
      -0.099104956,
      -0.06380981,
      -0.095035635,
      0.05674296,
      -0.08083781,
      0.13085425,
      0.03728053
    ]
  ],
  "biases": [
    [
      0.0,
      0.0,
      0.011856459,
      -0.002985592,
      0.0,
      0.0,
      0.0379553,
      -0.0058016507
    ],
    [
      0.38960373
    ]
  ]
}