{
  "layer_sizes": [
    4,
    8,
    1
  ],
  "weights": [
    [
      0.03459812,
      -0.09711287,
      -0.036410727,
      -0.0005251989,
      -0.03323511,
      -0.07010591,
      0.037625022,
      -0.059208907,
      -0.024145618,
      0.04106908,
      -0.008507894,
      -0.061529122,
      0.09640992,
      0.07148338,
      -0.028343273,
      -0.031752124,
      -0.0005709529,
      -0.055854537,
      -0.083680235,
      -0.032245375,
      0.09225289,
      -0.06986274,
      -0.0665659,
      -0.03416705,
      0.048657805,
      0.061190188,
      0.09648131,
      0.088523224,
      -0.02319197,
      0.008733824,
      -0.074478224,
      -0.098039895
    ],
    [
      0.036009602,
      -0.099104956,
      -0.061303496,
      -0.095035635,
      0.05674296,
      -0.08083781,
      0.103604354,
      0.037497565
    ]
  ],
  "biases": [
    [
      0.0,
      0.0,
      0.0033134702,
      -0.002985592,
      0.0,
      0.0,
      0.023040686,
      -0.0020454368
    ],
    [
      0.26049662
    ]
  ]
}