{
  "layer_sizes": [
    4,
    8,
    1
  ],
  "weights": [
    [
      0.03459812,
      -0.09711287,
      -0.036410727,
      -0.0005251989,
      -0.03323511,
      -0.07010591,
      0.037625022,
      -0.059208907,
      -0.023233118,
      0.040460728,
      -0.008203734,
      -0.0618333,
      0.09640992,
      0.07148338,
      -0.028343273,
      -0.031752124,
      -0.0005709529,
      -0.055854537,
      -0.083680235,
      -0.032245375,
      0.09225289,
      -0.06986274,
      -0.0665659,
      -0.03416705,
      0.045177907,
      0.058027793,
      0.08983895,
      0.08077442,
      -0.023754839,
      0.009109076,
      -0.074665844,
      -0.097852275
    ],
    [
      0.036009602,
      -0.099104956,
      -0.06072006,
      -0.095035635,
      0.05674296,
      -0.08083781,
      0.083678335,
      0.037766404
    ]
  ],
  "biases": [
    [
      0.0,
      0.0,
      0.00027183903,
      -0.002985592,
      0.0,
      0.0,
      0.0072286758,
      -0.00016920854
    ],
    [
      0.08994238
    ]
  ]
}